5 64
5 0.001994731 -0.006963482 0.0016264917 -0.004347839 0.0075905793 0.0062851873 0.005075474 0.0009615839 -0.0069125206 -0.0027471525 -0.00722001 -0.0059800474 0.0030472053 0.005358695 -0.002457675 -0.0077958433 -0.0023168533 0.00026174836 0.0029766592 -0.0045156856 -0.0030507254 -0.0062457793 -0.002359469 0.0061044465 0.0031078034 0.0009146804 0.0021708484 -0.0038374146 -0.006921547 0.0016842952 -0.0031850801 -0.0009178919 -0.002033917 -0.00030075575 0.0011368821 0.004869837 0.0010878649 -0.0030943998 0.003983755 -0.0039670286 0.0021950786 0.0002418909 -0.0064229737 -0.0013474651 -0.0034724192 0.0061822184 0.0054186243 -0.0021498918 0.00088755065 -0.001651395 0.00176825 0.00521446 -5.320077e-05 -0.0059026796 -0.0025467866 0.004640565 0.0077924174 0.0015376701 0.0067763934 0.005811337 0.0065339985 -0.002705176 0.0050710067 0.0077208052
3 -0.0065586925 0.00055462937 0.005202521 -0.006657672 0.002625883 -0.0027252524 -0.007548691 0.005696 -0.0037043088 -0.0009792015 -0.0055031 0.0043020924 -0.0050090053 0.0021985255 0.0059029055 0.0052585173 0.0048231203 0.005089026 -0.0033494753 -0.0032215514 0.0065994766 0.002022781 0.0044729295 0.0061697746 0.006343474 0.0068757185 -0.004066584 -0.0054484704 0.0011176564 -0.007022056 -0.0042679803 -0.00529575 0.0031606553 0.0033044827 0.002041086 0.005951656 -0.0015023542 0.005135808 0.0055417377 0.0060016187 -0.0074480865 0.002698016 -0.004893663 0.0026326682 0.0074249315 0.0009923804 0.0023107692 0.0070701507 -0.0009463083 -0.006013801 0.0014934227 0.004057709 -6.6535895e-06 -0.0030897968 -0.00025245966 -0.0043300027 -0.0076209167 -0.006575379 0.004866777 -0.0044667707 -0.0053611756 -0.0077624507 -0.005369444 0.006815214
4 -0.0031580727 0.0039770086 -0.0060293293 -0.00654717 0.0025396908 -0.0058050235 -0.0033210071 -0.0008991118 -0.0033486262 0.0026655435 0.00146321 -0.00019035598 -0.006441705 0.005552749 -0.0006508462 -0.005962762 0.0030726865 -0.0038602985 0.002283689 -0.006330981 0.00097425986 -0.0072697676 0.006384816 -0.0047613787 -0.0011740583 -0.0074672876 -0.0020300527 -0.004385673 -0.004120399 0.007732311 0.0073488737 -0.0019409514 -0.0060799113 -0.004314892 0.0033799112 0.0028446387 -0.0067707878 0.00757778 0.0020706453 -0.0012109273 0.0029570013 -0.0034846107 0.005479621 -0.004962991 0.007054881 0.007473223 0.004803607 -0.0046516815 0.0008510855 -0.007527143 0.0031886229 -0.002047871 0.0075119366 -0.0042825458 -0.0065943315 0.0063417302 0.006681035 -0.0045163254 -0.0062995055 0.0003451022 -0.00071258884 0.0025806038 6.778699e-05 0.004218527
1 0.0026716331 0.006175387 0.00044334636 0.00655043 0.0040462054 0.0051219976 -0.0066333916 0.0017128141 -0.00089234335 -0.0072771367 -0.004534486 0.006545169 -0.0069496445 8.528547e-05 -0.0024048386 -0.0025185412 0.0018448143 0.0023194721 0.007426556 -0.0035815926 0.00015391927 0.0021891745 0.007107928 -0.0016549975 0.0021260774 0.0023384627 0.0068660695 -0.0050354237 0.0034739196 -0.007695195 0.0049804198 -0.0013412449 -0.0038752684 -0.004239666 0.0011471461 -0.0018122547 -0.0006484386 -0.0026904494 0.003414855 0.007003332 0.001780448 0.003085135 -0.005277534 0.0035419576 0.0001986138 0.0033516064 0.00095501594 -0.0034335938 -0.0047598644 -0.0074736667 0.003892391 0.0055867326 0.005115318 0.0048804143 0.0050509274 -0.0051191305 0.001057573 0.006575897 -0.0013700672 0.0068403124 -0.004375087 0.002618238 0.0038315055 0.0043992097
2 0.0043158587 -0.0013905773 -0.0047381446 0.0074357297 0.004134367 0.0025677197 0.005266095 -0.003594637 0.0049752123 -0.00023429394 -0.003949027 -0.0046940576 0.0034080104 0.0074640056 -0.0011899616 -0.0047411304 0.0012121167 -0.0006241597 -0.0074665947 0.0047943075 0.0013595079 0.0060344804 8.051349e-05 -0.0045021097 -0.0023895854 -0.00021954648 -0.0017732941 0.006254251 -0.0060848184 0.005728436 0.0019334021 -0.004323974 -0.0049762726 -0.006992438 -0.0061232797 0.0077215782 -0.002333443 0.005102231 0.0033755424 -0.0037201648 -0.006210725 0.0044542234 0.0050161914 -0.0072579193 0.0012840751 -0.0029084613 -0.0020442237 0.0007516233 0.0016158209 -0.0012739586 -0.003146113 -0.0022211578 0.006404737 -0.0023962096 -0.002343433 0.0077379034 0.0037211014 0.0006975131 -0.0038673496 0.00091966125 0.00025673115 -0.0011868689 0.0037215636 0.00064446
