5 64
5 0.0019850996 -0.0069531514 0.0016163028 -0.0043395567 0.007553199 0.0062517505 0.0050771474 0.0009505943 -0.0068790917 -0.0027194764 -0.0071830414 -0.005976411 0.0030564484 0.0053411676 -0.0024440188 -0.007762432 -0.0023129417 0.0002546108 0.0029425095 -0.0044846907 -0.0030397042 -0.0062218914 -0.0023693817 0.0060817185 0.003088234 0.00090561627 0.0021458238 -0.0038045845 -0.00690648 0.0016997634 -0.0031841602 -0.00091265247 -0.0020193243 -0.00029367206 0.0011247343 0.00485882 0.0010852407 -0.0030749291 0.0039609624 -0.0039717513 0.0021789446 0.0002366295 -0.0063823303 -0.0013550101 -0.003461222 0.006146713 0.005392698 -0.0021331199 0.00089663215 -0.0016253662 0.0017491129 0.0051790606 -6.257689e-05 -0.005891798 -0.0025493184 0.004639495 0.0077621387 0.0015183073 0.0067513054 0.005773646 0.00652045 -0.0027009526 0.005045463 0.007678763
2 0.004316585 -0.0013889323 -0.0047317715 0.007440706 0.004129692 0.0025707895 0.0052626007 -0.0035920548 0.004977209 -0.00023777009 -0.003947728 -0.0046879333 0.0034082006 0.007454908 -0.0011890001 -0.004733037 0.0012105161 -0.0006202815 -0.0074633975 0.004797073 0.0013590909 0.0060397703 7.864133e-05 -0.004498781 -0.002387828 -0.00021330702 -0.0017693574 0.006254217 -0.0060758186 0.0057170135 0.001929512 -0.004320721 -0.004970095 -0.006987304 -0.0061230245 0.007713937 -0.0023277947 0.0050942185 0.003372405 -0.0037141438 -0.006210211 0.0044557764 0.0050099287 -0.0072493455 0.0012792314 -0.0029135006 -0.002048192 0.00075430895 0.0016126443 -0.0012696395 -0.0031463504 -0.0022183028 0.0063978387 -0.002388593 -0.0023350096 0.0077266037 0.0037124527 0.00070230215 -0.0038632473 0.0009195213 0.0002538395 -0.0011866494 0.0037196043 0.00064016966
4 -0.0031719774 0.0039839833 -0.006052074 -0.006585306 0.002555747 -0.005826126 -0.0033282489 -0.0009015671 -0.003371698 0.0026773524 0.001464862 -0.00019927714 -0.006463806 0.0055800304 -0.00065485464 -0.005994209 0.0030820684 -0.003877406 0.0022956578 -0.006362895 0.00097458396 -0.0073106396 0.006406266 -0.0047728885 -0.0011759002 -0.007499253 -0.002038958 -0.004408303 -0.004145331 0.0077690035 0.007373941 -0.0019482996 -0.0061048344 -0.004329558 0.003397016 0.0028605817 -0.0067975484 0.00760646 0.0020812599 -0.0012225214 0.0029731945 -0.0035020716 0.0054968786 -0.0049850727 0.007080774 0.007511373 0.0048303213 -0.0046726125 0.0008573847 -0.007557347 0.0032034097 -0.002052782 0.007539681 -0.0043088533 -0.0066269436 0.006373905 0.0067165424 -0.004537209 -0.00631719 0.00034953206 -0.00070653367 0.002587848 7.072258e-05 0.004242842
3 -0.00656295 0.0005599767 0.005194398 -0.006666511 0.0026293134 -0.0027330723 -0.007553158 0.00569479 -0.0037088343 -0.000975608 -0.005501134 0.004301825 -0.005017681 0.002206015 0.0059020263 0.005250472 0.0048272572 0.0050838217 -0.003346394 -0.0032300917 0.0066007846 0.0020129685 0.004481528 0.0061633685 0.006341896 0.006865653 -0.004069321 -0.005454387 0.0011120925 -0.0070116282 -0.004258083 -0.0052983654 0.0031524615 0.0032986715 0.0020456456 0.0059554954 -0.0015114777 0.0051460173 0.005544531 0.0059999777 -0.007444096 0.0026933155 -0.004886285 0.0026259774 0.007434435 0.0010024621 0.0023172523 0.007063879 -0.00094515755 -0.0060239444 0.0014977222 0.004054954 3.4661334e-06 -0.00309558 -0.00026135432 -0.0043214476 -0.007611902 -0.006581469 0.004858298 -0.0044663018 -0.0053621237 -0.0077589774 -0.005369349 0.0068209087
1 0.0026604198 0.0061860387 0.00044173465 0.0065352907 0.004047054 0.005110418 -0.006649941 0.0017180523 -0.000901128 -0.0072754608 -0.0045321267 0.00655488 -0.0069669136 8.6752756e-05 -0.0024012825 -0.0025182168 0.0018521273 0.0023185073 0.0074347747 -0.0035954597 0.0001590733 0.0021785544 0.0071219704 -0.0016564718 0.0021299184 0.002333266 0.0068637906 -0.0050498056 0.003476859 -0.0076963864 0.0049886494 -0.001343847 -0.0038782754 -0.0042393003 0.0011576102 -0.0018127919 -0.00065709837 -0.0026811147 0.0034182626 0.0070115137 0.0017846042 0.0030795792 -0.0052767983 0.003543988 0.00021256853 0.0033636547 0.0009631064 -0.003436574 -0.00476228 -0.007488192 0.0039006574 0.0055883727 0.0051220255 0.00487792 0.005046093 -0.0051221573 0.0010571163 0.0065669897 -0.0013749696 0.0068378286 -0.0043827156 0.002619529 0.0038252347 0.004407567
